digraph Tree {
node [shape=box, style="filled, rounded", color="black", fontname=helvetica] ;
edge [fontname=helvetica] ;
0 [label="6 <= -8910.845\ngini = 0.45\nsamples = 23\nvalue = [25, 13]\nclass = ALL", fillcolor="#f3c3a0"] ;
1 [label="2 <= -462.978\ngini = 0.375\nsamples = 10\nvalue = [4, 12]\nclass = AML", fillcolor="#7bbeee"] ;
0 -> 1 [labeldistance=2.5, labelangle=45, headlabel="True"] ;
2 [label="gini = 0.0\nsamples = 4\nvalue = [4, 0]\nclass = ALL", fillcolor="#e58139"] ;
1 -> 2 ;
3 [label="gini = 0.0\nsamples = 6\nvalue = [0, 12]\nclass = AML", fillcolor="#399de5"] ;
1 -> 3 ;
4 [label="13 <= 11266.864\ngini = 0.087\nsamples = 13\nvalue = [21, 1]\nclass = ALL", fillcolor="#e68742"] ;
0 -> 4 [labeldistance=2.5, labelangle=-45, headlabel="False"] ;
5 [label="gini = 0.0\nsamples = 12\nvalue = [21, 0]\nclass = ALL", fillcolor="#e58139"] ;
4 -> 5 ;
6 [label="gini = 0.0\nsamples = 1\nvalue = [0, 1]\nclass = AML", fillcolor="#399de5"] ;
4 -> 6 ;
}