digraph Tree {
node [shape=box, style="filled, rounded", color="black", fontname=helvetica] ;
edge [fontname=helvetica] ;
0 [label="2 <= 2217.881\ngini = 0.411\nsamples = 26\nvalue = [27, 11]\nclass = ALL", fillcolor="#f0b48a"] ;
1 [label="gini = 0.0\nsamples = 18\nvalue = [27, 0]\nclass = ALL", fillcolor="#e58139"] ;
0 -> 1 [labeldistance=2.5, labelangle=45, headlabel="True"] ;
2 [label="gini = 0.0\nsamples = 8\nvalue = [0, 11]\nclass = AML", fillcolor="#399de5"] ;
0 -> 2 [labeldistance=2.5, labelangle=-45, headlabel="False"] ;
}