digraph Tree {
node [shape=box, style="filled, rounded", color="black", fontname=helvetica] ;
edge [fontname=helvetica] ;
0 [label="21 <= 7713.398\ngini = 0.432\nsamples = 22\nvalue = [26, 12]\nclass = ALL", fillcolor="#f1bb94"] ;
1 [label="8 <= 28311.261\ngini = 0.312\nsamples = 19\nvalue = [25, 6]\nclass = ALL", fillcolor="#eb9f69"] ;
0 -> 1 [labeldistance=2.5, labelangle=45, headlabel="True"] ;
2 [label="32 <= -7190.3\ngini = 0.238\nsamples = 18\nvalue = [25, 4]\nclass = ALL", fillcolor="#e99559"] ;
1 -> 2 ;
3 [label="gini = 0.0\nsamples = 3\nvalue = [0, 3]\nclass = AML", fillcolor="#399de5"] ;
2 -> 3 ;
4 [label="12 <= 15498.11\ngini = 0.074\nsamples = 15\nvalue = [25, 1]\nclass = ALL", fillcolor="#e68641"] ;
2 -> 4 ;
5 [label="gini = 0.0\nsamples = 14\nvalue = [25, 0]\nclass = ALL", fillcolor="#e58139"] ;
4 -> 5 ;
6 [label="gini = 0.0\nsamples = 1\nvalue = [0, 1]\nclass = AML", fillcolor="#399de5"] ;
4 -> 6 ;
7 [label="gini = 0.0\nsamples = 1\nvalue = [0, 2]\nclass = AML", fillcolor="#399de5"] ;
1 -> 7 ;
8 [label="6 <= -9009.639\ngini = 0.245\nsamples = 3\nvalue = [1, 6]\nclass = AML", fillcolor="#5aade9"] ;
0 -> 8 [labeldistance=2.5, labelangle=-45, headlabel="False"] ;
9 [label="gini = 0.0\nsamples = 1\nvalue = [0, 3]\nclass = AML", fillcolor="#399de5"] ;
8 -> 9 ;
10 [label="32 <= 2171.914\ngini = 0.375\nsamples = 2\nvalue = [1, 3]\nclass = AML", fillcolor="#7bbeee"] ;
8 -> 10 ;
11 [label="gini = 0.0\nsamples = 1\nvalue = [1, 0]\nclass = ALL", fillcolor="#e58139"] ;
10 -> 11 ;
12 [label="gini = 0.0\nsamples = 1\nvalue = [0, 3]\nclass = AML", fillcolor="#399de5"] ;
10 -> 12 ;
}