digraph Tree {
node [shape=box, style="filled, rounded", color="black", fontname=helvetica] ;
edge [fontname=helvetica] ;
0 [label="2 <= 2217.881\ngini = 0.388\nsamples = 27\nvalue = [28, 10]\nclass = ALL", fillcolor="#eeae80"] ;
1 [label="8 <= -10448.188\ngini = 0.067\nsamples = 20\nvalue = [28, 1]\nclass = ALL", fillcolor="#e68640"] ;
0 -> 1 [labeldistance=2.5, labelangle=45, headlabel="True"] ;
2 [label="31 <= 7120.847\ngini = 0.375\nsamples = 2\nvalue = [3, 1]\nclass = ALL", fillcolor="#eeab7b"] ;
1 -> 2 ;
3 [label="gini = 0.0\nsamples = 1\nvalue = [0, 1]\nclass = AML", fillcolor="#399de5"] ;
2 -> 3 ;
4 [label="gini = 0.0\nsamples = 1\nvalue = [3, 0]\nclass = ALL", fillcolor="#e58139"] ;
2 -> 4 ;
5 [label="gini = 0.0\nsamples = 18\nvalue = [25, 0]\nclass = ALL", fillcolor="#e58139"] ;
1 -> 5 ;
6 [label="gini = 0.0\nsamples = 7\nvalue = [0, 9]\nclass = AML", fillcolor="#399de5"] ;
0 -> 6 [labeldistance=2.5, labelangle=-45, headlabel="False"] ;
}