digraph Tree {
node [shape=box, style="filled, rounded", color="black", fontname=helvetica] ;
edge [fontname=helvetica] ;
0 [label="25 <= 1988.34\ngini = 0.45\nsamples = 21\nvalue = [25, 13]\nclass = ALL", fillcolor="#f3c3a0"] ;
1 [label="8 <= -10448.19\ngini = 0.17\nsamples = 13\nvalue = [19, 2]\nclass = ALL", fillcolor="#e88e4e"] ;
0 -> 1 [labeldistance=2.5, labelangle=45, headlabel="True"] ;
2 [label="gini = 0.0\nsamples = 1\nvalue = [0, 1]\nclass = AML", fillcolor="#399de5"] ;
1 -> 2 ;
3 [label="12 <= 22686.87\ngini = 0.09\nsamples = 12\nvalue = [19, 1]\nclass = ALL", fillcolor="#e68843"] ;
1 -> 3 ;
4 [label="gini = 0.0\nsamples = 11\nvalue = [19, 0]\nclass = ALL", fillcolor="#e58139"] ;
3 -> 4 ;
5 [label="gini = 0.0\nsamples = 1\nvalue = [0, 1]\nclass = AML", fillcolor="#399de5"] ;
3 -> 5 ;
6 [label="1 <= -20212.23\ngini = 0.46\nsamples = 8\nvalue = [6, 11]\nclass = AML", fillcolor="#a5d2f3"] ;
0 -> 6 [labeldistance=2.5, labelangle=-45, headlabel="False"] ;
7 [label="gini = 0.0\nsamples = 2\nvalue = [4, 0]\nclass = ALL", fillcolor="#e58139"] ;
6 -> 7 ;
8 [label="2 <= -6635.96\ngini = 0.26\nsamples = 6\nvalue = [2, 11]\nclass = AML", fillcolor="#5dafea"] ;
6 -> 8 ;
9 [label="gini = 0.0\nsamples = 2\nvalue = [2, 0]\nclass = ALL", fillcolor="#e58139"] ;
8 -> 9 ;
10 [label="gini = 0.0\nsamples = 4\nvalue = [0, 11]\nclass = AML", fillcolor="#399de5"] ;
8 -> 10 ;
}